digraph Tree {
node [shape=box, style="filled", color="black"] ;
0 [label="petal length (cm) <= 2.6\ngini = 0.664\nsamples = 105\nvalue = [39, 31, 35]\nclass = setosa", fillcolor="#fef8f4"] ;
1 [label="gini = 0.0\nsamples = 39\nvalue = [39, 0, 0]\nclass = setosa", fillcolor="#e58139"] ;
0 -> 1 [labeldistance=2.5, labelangle=45, headlabel="True"] ;
2 [label="petal length (cm) <= 4.75\ngini = 0.498\nsamples = 66\nvalue = [0, 31, 35]\nclass = virginica", fillcolor="#f1e8fc"] ;
0 -> 2 [labeldistance=2.5, labelangle=-45, headlabel="False"] ;
3 [label="petal width (cm) <= 1.65\ngini = 0.062\nsamples = 31\nvalue = [0, 30, 1]\nclass = versicolor", fillcolor="#40e685"] ;
2 -> 3 ;
4 [label="gini = 0.0\nsamples = 30\nvalue = [0, 30, 0]\nclass = versicolor", fillcolor="#39e581"] ;
3 -> 4 ;
5 [label="gini = 0.0\nsamples = 1\nvalue = [0, 0, 1]\nclass = virginica", fillcolor="#8139e5"] ;
3 -> 5 ;
6 [label="petal width (cm) <= 1.7\ngini = 0.056\nsamples = 35\nvalue = [0, 1, 34]\nclass = virginica", fillcolor="#853fe6"] ;
2 -> 6 ;
7 [label="petal width (cm) <= 1.55\ngini = 0.375\nsamples = 4\nvalue = [0, 1, 3]\nclass = virginica", fillcolor="#ab7bee"] ;
6 -> 7 ;
8 [label="gini = 0.0\nsamples = 2\nvalue = [0, 0, 2]\nclass = virginica", fillcolor="#8139e5"] ;
7 -> 8 ;
9 [label="sepal length (cm) <= 6.6\ngini = 0.5\nsamples = 2\nvalue = [0, 1, 1]\nclass = versicolor", fillcolor="#ffffff"] ;
7 -> 9 ;
10 [label="gini = 0.0\nsamples = 1\nvalue = [0, 1, 0]\nclass = versicolor", fillcolor="#39e581"] ;
9 -> 10 ;
11 [label="gini = 0.0\nsamples = 1\nvalue = [0, 0, 1]\nclass = virginica", fillcolor="#8139e5"] ;
9 -> 11 ;
12 [label="gini = 0.0\nsamples = 31\nvalue = [0, 0, 31]\nclass = virginica", fillcolor="#8139e5"] ;
6 -> 12 ;
}